{
    "weights": [
        [
            [
                0,
                0.11885468402011484,
                -0.1417418163134314,
                0.05763704034424145,
                0.12531281892129295,
                -0.034130482368066185,
                -0.07122989857356013,
                0.05665953386241896,
                -0.06914708140748732,
                -0.050380414771063274,
                -0.22997944350603683,
                0,
                0,
                -0.004755265972407163,
                0.033641856489707994,
                0.08509744198452454,
                -0.021342586708356023,
                0.03015693049780828,
                0.0424105002849351,
                0.1320540278651442
            ],
            [
                -0.07534043180511836,
                0,
                0.062494919071727426,
                -0.018793835396693014,
                0,
                0,
                0.017504525835242,
                0.016462362351270386,
                0.020311216979633333,
                0.04310682675883573,
                -0.026049563391190432,
                -0.047321411185688,
                -0.009339105319621722,
                -0.06775944403196993,
                0.05944831675672027,
                -0.1733275263724994,
                0.0531658392116993,
                0.0674845403672538,
                0,
                -0.04501729538009239
            ],
            [
                0.00805561467432181,
                -0.003434872965493739,
                0.0577484953995375,
                -0.010178265039188256,
                0,
                0,
                -0.0794325369873701,
                -0.07635673305654926,
                -0.023608752400792923,
                -0.02372887069290079,
                0.012951149348628468,
                0,
                0.011909239832905948,
                0.09248777171877598,
                0.009996598662041428,
                0,
                -0.044072743718171936,
                0,
                0.07583753338369954,
                0.02919737773507727
            ],
            [
                -0.05568724954355005,
                -0.06118540845653264,
                0,
                -0.028327263281780216,
                -0.004305891749381396,
                0.05825916116453632,
                -0.014072018880236528,
                0.013510695163843123,
                0.2352466806371487,
                0.0791889732742005,
                0.05548641664663295,
                0.053470613096970966,
                0.015210901626211769,
                -0.12517280030364472,
                -0.08408110521883205,
                0.0609465450126883,
                -0.017741705821563043,
                -0.09736496741424835,
                -0.04710070118587875,
                0.04210994510525539
            ],
            [
                -0.015254935450874037,
                0,
                0.05151482098839111,
                -0.1847075270521051,
                0.05200298852257475,
                0.04953796918837079,
                -0.1751265298043993,
                0,
                -0.0009372690964505881,
                0,
                0.06669699203361577,
                0,
                0,
                -0.026088482751353198,
                0.006338020525044535,
                -0.008512481758985536,
                -0.02220388275014616,
                -0.029451254033772724,
                -0.02368532812579087,
                -0.023458204219582557
            ],
            [
                0.11934256964975451,
                -0.02526822436940304,
                0,
                0,
                0.016629419636622553,
                0.0790897049250433,
                -0.010534871062678142,
                0.0490203058638576,
                -0.04236757822825801,
                -0.01491521963115619,
                0.07041592854228215,
                0.07597228999898188,
                -0.05663402268450625,
                0.04620434877664342,
                -0.04301633949810136,
                -0.122372829671458,
                -0.05000344190486501,
                0.01220255167216298,
                0.019105065976460712,
                0.02116399730202216
            ],
            [
                0,
                0,
                0.05163827271121038,
                -0.0015303677671324387,
                0.1554530559957792,
                -0.03555771139506423,
                -0.022196991610341055,
                0.061899917627256974,
                -0.08870157461574461,
                0,
                0.07740208138496406,
                0.0006278693752377884,
                0.020977306835667786,
                -0.07667102576071537,
                0.010751969729312277,
                -0.04572712517259934,
                0.05995974726849416,
                -0.012458884603356757,
                0.09230067463725478,
                -0.17464528656918607
            ],
            [
                0.02399665733290281,
                0.016432381323610364,
                0,
                0,
                -0.03406407058699837,
                0,
                0.037063732351468315,
                0.006464400081392679,
                -0.00032774748882953564,
                -0.0033618680496646583,
                0.08017981791662673,
                -0.09036077671069181,
                -0.027085806680518743,
                -0.04907024468142531,
                0.007588578631133623,
                -0.01273218398386302,
                -0.047621415275745316,
                -0.1592234086836825,
                0.055371521541673484,
                -0.17361570040082844
            ],
            [
                -0.09965414192425255,
                -0.06445288550652536,
                -0.06410209581637169,
                0.1129773686224016,
                -0.03703628865575513,
                -0.03662521249808868,
                0.061642674334718775,
                0.13696144535850202,
                0.05829013045214371,
                -0.0285486860406184,
                0.05491200901659668,
                0.06592172689883713,
                -0.02470371560161362,
                0.110930682668495,
                -0.03470640149410071,
                -0.09195037276531517,
                0.031970989041218326,
                -0.01251370625517842,
                0,
                -0.00991507307326596
            ],
            [
                0.005058611511385161,
                -0.06218154001521277,
                0.027231126376289706,
                0.12191842269215025,
                -0.023325764006788777,
                -0.03806519285838054,
                0.010330337999131654,
                -0.04678969138016831,
                0.010042210129444437,
                -0.011660962025849882,
                -0.06920085698463468,
                0,
                -0.00727365855119437,
                0.010372910978065638,
                -0.2019952144315964,
                0.024204389375269454,
                -0.03681763802046703,
                0.03356816924781121,
                -0.060215478507361316,
                -0.01881394231984536
            ],
            [
                0.006403881877320106,
                0.014602380877035942,
                -0.05268288970992352,
                -0.08863326884621095,
                -0.021383340832190206,
                -0.0526974780093368,
                0.13970545160907652,
                0.08552287362581232,
                0,
                -0.13791832985638644,
                0.3497801252100777,
                0.009551345358206134,
                0.0363681642462603,
                -0.07099747867950754,
                -0.0012346836507674888,
                -0.14765295753920524,
                -0.1394545432403209,
                0,
                -0.010232742788746974,
                -0.10157704138492923
            ],
            [
                0,
                -0.10947756647761729,
                0.038897585736544255,
                0.0025464037652274604,
                0,
                0,
                0.012506256598872327,
                0.04108224428333248,
                -0.009326343530867483,
                0,
                -0.018230871764238883,
                0.032822533385223965,
                -0.0552438120571132,
                0,
                -0.018175571137313946,
                0.048781082626676554,
                -0.0868642213424553,
                -0.02214835111499863,
                -0.1966991773644065,
                -0.10401482360562041
            ],
            [
                -0.025826684033975193,
                0.008821199399434418,
                0.029881932722808077,
                0.025711603307519915,
                0,
                -0.04058934468061289,
                0.2400555490584296,
                0,
                0.09617651514302254,
                -0.15793320103704556,
                0,
                -0.14451517375345146,
                -0.028752240391432593,
                0.03352969976689306,
                0.036087468864609805,
                0.010064707859366986,
                0.04102747218859409,
                0.07042335476094858,
                0.10190076620536234,
                0.007633996982769266
            ],
            [
                -0.04955482767086153,
                -0.016221244426004033,
                0.05983543156345608,
                -0.0765651296482192,
                -0.09157541071915246,
                -0.05883131957213446,
                0.07111191017380175,
                -0.1096321177145742,
                -0.04115464088672831,
                0,
                0.19636312127314245,
                -0.03107116820791532,
                -0.08337121205060383,
                0.036668001216194276,
                0.04658742727484555,
                -0.09279027327150917,
                0.010897792005011682,
                0.047734221463221975,
                0.04580508422937146,
                0
            ],
            [
                0.024244353659894496,
                0,
                -0.03362854764682677,
                -0.0656063076851976,
                0.284582054267655,
                0.2996387966726144,
                0.019282460601051474,
                0,
                0,
                -0.026908877557304242,
                0,
                0.027726567401030272,
                0,
                -0.01984056386294495,
                -0.0008641267175711967,
                0.05339577001777143,
                -0.013004823697543508,
                0,
                -0.07491437782886785,
                -0.01219412346731942
            ],
            [
                -0.048068564809484245,
                -0.15878673833311835,
                -0.06917431740836956,
                -0.07708121298201964,
                -0.051355306986373916,
                0.21853287336143085,
                -0.005507777431422958,
                -0.07910391663398864,
                0.06267218265542777,
                -0.1269464068080407,
                0,
                -0.13771489185962502,
                0,
                -0.0831542392658352,
                0.10395192651185506,
                0.11871745631242032,
                0.020242256326417317,
                0.022404348677302982,
                0.015166414873296959,
                -0.21000389273183862
            ],
            [
                0.06896382950306507,
                -0.0097341275653696,
                0.08831799549442668,
                -0.04790576702676018,
                0.08097203255491439,
                -0.02808429670076265,
                0.09799014102569917,
                0.014418474173552576,
                0.013083258491310305,
                0.005599153086926441,
                0.06926174490166775,
                0.0343671464753305,
                0.04104028940607712,
                -0.013211432033115405,
                -0.021960072345002662,
                -0.10029707093140444,
                -0.04240416028732147,
                -0.04845947510390716,
                0.014775724982363396,
                -0.09616098264615949
            ],
            [
                -0.03838161775325659,
                -0.07121475147566192,
                0,
                0.01675381645127827,
                -0.042980473861583976,
                -0.026304382853017047,
                0.009637394124226782,
                -0.019108387622190248,
                0.0059579037037078356,
                0.007214070393904287,
                0.06009866685388263,
                0.033151913983126835,
                -0.021625969017752756,
                0.06969255850376553,
                0.0030399899259455493,
                0,
                -0.025646888166412057,
                -0.0024067628475373803,
                0.031903854329003487,
                -0.010201395666272761
            ],
            [
                0.10002933864089944,
                -0.029001324553936322,
                0.022704984918590437,
                0.2815273631708804,
                -0.11112580895866492,
                0.003456273524898072,
                -0.026830000564853185,
                0.21329520293595958,
                0.048310564298530936,
                0,
                0,
                0.05264237755399846,
                -0.015745744076019384,
                -0.01885314385729819,
                0.11698660275458266,
                -0.014103528716997056,
                0.19673781436347415,
                -0.08568967126347622,
                -0.023791479631757935,
                -0.015215056664829318
            ]
        ],
        [
            [
                0.18427796586758663,
                -0.0674373858595741,
                -0.05761847494351115,
                0.09533684766060249
            ],
            [
                -0.23089293313589943,
                0.021258274426498407,
                -0.04362880643156772,
                0.06423867226024343
            ],
            [
                0.02344745605423486,
                -0.046053335519585736,
                -0.2846329452960885,
                0.05119731501437958
            ],
            [
                0,
                0.005420227514823163,
                0.01376275553550646,
                -0.09938514100754668
            ],
            [
                0.06618724685348039,
                -0.01865158182054604,
                -0.031177327615658196,
                0.03987913942575707
            ],
            [
                0,
                -0.03038240749599834,
                -0.12015607860837622,
                -0.002932025824957024
            ],
            [
                0.03431131742353448,
                -0.017345054456033,
                0.07243653205847345,
                -0.2429104504878545
            ],
            [
                0.15288756839050568,
                0.014521581712647197,
                0.017667946424055024,
                0.0990580967924387
            ],
            [
                -0.03475285915669491,
                -0.08411708761071839,
                -0.042735637552163266,
                0.11064327644750156
            ],
            [
                0.02503539599050144,
                -0.14071174181495202,
                0.028779162071703154,
                0.020771786050951653
            ],
            [
                0.20974422591239741,
                -0.06763303047653357,
                -0.13959445186109365,
                -0.18124150776849546
            ],
            [
                0.01809968892250386,
                0.02129658042802116,
                0.005663246411356827,
                0.02671813356444923
            ],
            [
                -0.014524599254412782,
                0,
                0.4732814328281781,
                0.05838525281428539
            ],
            [
                -0.04661150462401327,
                -0.27125874004698247,
                0,
                -0.06953195075131571
            ],
            [
                -0.07029740239317944,
                0.03641637517277357,
                0.08952002231794626,
                0.10897741269078734
            ],
            [
                0.06379088560237611,
                0.020827495854014312,
                -0.04132038895352554,
                -0.07548016418411738
            ],
            [
                0.27195503504968443,
                -0.024409560513003713,
                -0.05669042137476211,
                -0.08636283244160813
            ],
            [
                0.03314670375754507,
                -0.006023606228304536,
                -0.18988876431831883,
                0.049029541092773084
            ],
            [
                0.07097399290399926,
                0,
                0,
                0.03204089529104757
            ],
            [
                0,
                -0.044914384734595234,
                0.06389797941431438,
                0.3574380700388639
            ]
        ]
    ],
    "bias": [
        [
            -0.048075188912285065,
            -0.054999045549344074,
            -0.08875877568075544,
            -0.02541588694252252,
            -0.07894230220579984,
            0.03960175651385525,
            -0.3443558996902697,
            0.043764123986813445,
            -0.013603340482834715,
            -0.11068252121376439,
            0.07958838086281558,
            -0.09367279500996531,
            0.015751161878727354,
            -0.07227476189245058,
            -0.045463726565409646,
            0,
            0.09816871615128436,
            -0.01543663328106109,
            -0.1155305251993719,
            -0.012197032209670541
        ],
        [
            -0.017830531546874792,
            -0.05866266670472796,
            0,
            -0.08655598227949601
        ]
    ]
}