{
    "weights": [
        [
            [
                -0.04439386570401212,
                0.07828630673001861,
                0.014014738298876672,
                0.30116322374295457,
                0.037014838989291636,
                0.0359163387868386,
                0,
                0.038542724548933094,
                0.07696050435949028,
                -0.17568419801399043,
                0.019842526591666604,
                0.10864298463714868,
                0.14574473752333963,
                -0.05947651385428533,
                0.010638690570377266,
                0.04613585735211212,
                -0.017808064438262022,
                -0.0437518446318752,
                0.0009876741084156627,
                0.012669350618064006
            ],
            [
                0,
                0,
                -0.011805700110207235,
                -0.20909603676219568,
                -0.047548740685061645,
                -0.08411403966157976,
                -0.078718543776739,
                -0.17407970061779576,
                0.057779767402650034,
                0.21120175153283632,
                -0.03784126922685839,
                -0.024565326718100782,
                0.21340326155740663,
                0.07348961529126893,
                -0.00864397940436297,
                0.008904686959634353,
                -0.1977546095354753,
                0.02616230262187593,
                0.008495264085814247,
                -0.050346334110908934
            ],
            [
                0,
                0.0306235109763223,
                -0.10574774697604095,
                -0.1315683162189182,
                -0.11755630300461888,
                0.03545738056905307,
                0.07777246536906324,
                0,
                0,
                -0.05476910494857955,
                0.05482307482371011,
                0.04464783878057284,
                -0.046619358380881534,
                -0.027113897081689573,
                -0.01916800415724769,
                -0.0033008586059498843,
                -0.049049239852365756,
                -0.17377381694984534,
                -0.06236421683345658,
                -0.020717555463520082
            ],
            [
                -0.14289971909532018,
                -0.0016778373559902804,
                0,
                -0.0866948732274206,
                0.11177243659858116,
                0,
                -0.044169359353495335,
                -0.07601512245756845,
                0.030982429668054673,
                0.024452417011247906,
                0.011246040203621632,
                -0.03776458127779027,
                -0.0058708805087315935,
                -0.08688664516909013,
                0.1726966093850163,
                0.036909231618814584,
                -0.13152660378911224,
                0,
                -0.12826534903205672,
                -0.029761372409473033
            ],
            [
                0.2278391236110337,
                0,
                0.1099856005261595,
                0.058632860998000136,
                -0.10286159663291272,
                0.09634884392573353,
                0.037446983423833693,
                0.03257945203869908,
                0.05455187147207986,
                0.03265995643649615,
                -0.031003765096546745,
                0.016777441778290325,
                0.1412909365153351,
                0.0023156882147710584,
                -0.1775384149362306,
                0.004395889920726377,
                -0.06156182378521784,
                0.0267764276270573,
                0.11456943241430748,
                -0.012730523419647907
            ],
            [
                -0.0169249185644613,
                0.07616304193491467,
                -0.08574112606676196,
                0.020800054501706543,
                -0.0006740341287259366,
                0.1824759486910592,
                0.025344647116492938,
                0,
                0,
                0.059071107991246534,
                0.03512986755046719,
                -0.05857908948581972,
                0.010565578004440912,
                0.023403289576019982,
                -0.05509979781919444,
                -0.03570579093439268,
                0.09377036879209044,
                0.07088977896343758,
                0.048132072670149864,
                -0.11633593954157656
            ],
            [
                -0.05670316674846714,
                0.08746231737125583,
                -0.05756019103170223,
                0.0011217808740790688,
                -0.010471290699869448,
                -0.0024725563093376257,
                0,
                0,
                -0.13613223405714403,
                -0.08297070804487704,
                -0.020341589715617586,
                -0.024875395790964025,
                -0.031093235388866963,
                -0.0025426065604255976,
                -0.008187138288217814,
                0.11235550258355309,
                0.03717454214434377,
                -0.17733658197531738,
                0.011720619226163985,
                -0.040527374590736465
            ],
            [
                0.010161000651815098,
                -0.07050935592155266,
                0.047931886196628026,
                0.10187053273683368,
                -0.08486789120634854,
                0.02821868878304319,
                0.045255306842738555,
                -0.048756506461241536,
                -0.2504386080778954,
                -0.11145656049880592,
                0.006699761636166347,
                0,
                -0.017250974932521743,
                -0.02607882925707155,
                -0.05878634036278002,
                0.10760711469638208,
                0,
                0.04942929195724942,
                0.01340342469653915,
                -0.036287509555903194
            ],
            [
                0.26440354087767143,
                -0.0554657032903436,
                0.11439474274664566,
                -0.03692083825810432,
                0.03542078973286656,
                0.009601270942879235,
                -0.006949999051226688,
                0.15394843052629453,
                -0.02191167578422966,
                -0.03884866397910891,
                -0.011187353989447923,
                -0.001857970025711267,
                -0.05627476827574261,
                0.0138993319139862,
                -0.027952430916835774,
                -0.06424042888067442,
                0.11797137878539599,
                -0.0587522636946801,
                -0.0036133082451682563,
                -0.12885405546931528
            ],
            [
                -0.009551747838076531,
                -0.01218815126485535,
                0.02514739196913134,
                0.046646736664718524,
                -0.0009019233327293048,
                0.02199655536073715,
                -0.1636338982029813,
                0.024425411492364775,
                0.1793618011445444,
                -0.03402964855001929,
                0.025110873656319407,
                -0.03170641247114824,
                -0.15979027075571722,
                -0.09488210841985545,
                0,
                -0.10780461096462375,
                0.03166069991771503,
                0.11755458565268714,
                0.02651829023202508,
                -0.03168393209972768
            ],
            [
                -0.004154853206587844,
                0.16368973153278377,
                0.005210150930013979,
                -0.017993415523180147,
                0.10448392010364896,
                -0.009690326569717994,
                -0.14447634166160417,
                0,
                0.053315728875159715,
                -0.03705444634652534,
                -0.10979515620494387,
                -0.03826168006964463,
                -0.14201075172475786,
                0.05343574931969488,
                -0.08715752240201771,
                0.11168564463647988,
                -0.006030394058208537,
                -0.02354005664675085,
                -0.14470600003432524,
                0
            ],
            [
                0,
                0.14001137125557847,
                0.057722784254872726,
                0,
                0.0035172209143148683,
                -0.0885979236268086,
                0.09183996200216632,
                0.041426497047145884,
                0.11584074991806495,
                0.028698553244588993,
                0,
                -0.001765454640466728,
                -0.16646781729873236,
                -0.0977454144325201,
                0.17046416058604688,
                0.07841461845610483,
                0,
                -0.0781104630738868,
                0.05543113409202413,
                0.011918690146638995
            ],
            [
                0.019860857296972338,
                -0.16538209637843,
                -0.06869290496495085,
                0.029917933982348786,
                0,
                0.010851445298458919,
                0.03264586075350062,
                -0.06670093504175667,
                0.008892165401834524,
                -0.09234500577343979,
                -0.04678343428403971,
                0.1011642396162361,
                0.017143506234884115,
                0.03659299491351669,
                0.17841770176665214,
                0.052881684152590314,
                0.035400712143879125,
                -0.09774624270771551,
                -0.009963677152762026,
                0
            ],
            [
                0,
                0.041903635882180025,
                -0.019386035490949076,
                0.023480348128228086,
                -0.04033529257687796,
                0.004572291944086326,
                -0.0019021952197907817,
                0.038114776688524574,
                -0.3011130877213502,
                -0.02090006215129038,
                0.06787862194037184,
                -0.1071849102368041,
                0.006562591523614221,
                0.0685751362181251,
                -0.04259215015762606,
                0.03508561237597399,
                0.04815932178348098,
                -0.002041352863797162,
                0,
                0.03363026283779061
            ],
            [
                -0.020573001424969792,
                -0.017075182952386442,
                -0.03304097821690899,
                -0.13786851661951272,
                0.01813831297103461,
                0.0521139991691304,
                -0.03682052000458412,
                0.024887937089531235,
                0,
                0.005480054584840376,
                -0.00302788556233265,
                0.07671477915283237,
                -0.21374799069585831,
                -0.14918327961493863,
                0.005769690549067549,
                0.023747285242238726,
                0,
                -0.04705582252358909,
                0,
                -0.009230228472594249
            ],
            [
                0.07353438037380078,
                -0.10875407460905923,
                -0.04950328293556899,
                0.08311194535382982,
                -0.00510756159078421,
                -0.18627396238371935,
                -0.09508959606432468,
                0.008339740159193636,
                0.11748282635411877,
                0,
                -0.033667614279979684,
                -0.03222771172826322,
                0.05916498748330854,
                -0.03330802226330712,
                0,
                0.026430471959729862,
                0,
                0.03946183196773241,
                0.04214774486883112,
                -0.11702522095032612
            ],
            [
                0.051661019674753894,
                0.006474392445800829,
                0,
                -0.11193011608480034,
                0.06571582015957764,
                -0.08771307071042148,
                -0.05463634754101804,
                0.04753292331363388,
                -0.14300136408367886,
                0.08672868484830683,
                0,
                0.09135422950058866,
                -0.05437933495882147,
                0,
                -0.0649325374436865,
                -0.31153166963679335,
                0.02947477056987491,
                0,
                -0.01249949888396698,
                -0.04754282302398814
            ],
            [
                -0.1132348965420901,
                -0.007431796501429909,
                -0.028101357760299747,
                0.02864535845200754,
                0.03589831687734027,
                0.11713489899739536,
                -0.009749790140637198,
                0.02932265274154442,
                -0.06869210799290734,
                -0.03028101036650193,
                0.004953685600771446,
                -0.03550167789434474,
                -0.16394180284983068,
                0.23053849106231744,
                -0.09949971965241676,
                -0.09484395961343271,
                0.13511291175407789,
                0.0329546054290123,
                0.06073161971130778,
                -0.021140012848034045
            ],
            [
                0,
                0.08039068678168079,
                0,
                0,
                0.18944552328856512,
                -0.03958156408073814,
                0.10019951659014265,
                -0.01758407930955269,
                0,
                0.11980506722394518,
                0.0174610903819448,
                0.0037368752857472043,
                -0.12128224452831705,
                -0.1292899573674073,
                0.25751511033843366,
                -0.07001441512998588,
                0.01771578442714985,
                0.05547389653184293,
                0,
                0.06948954085162959
            ]
        ],
        [
            [
                0.053448292426592395,
                0,
                -0.023908862914606296,
                0.03864644900958888
            ],
            [
                -0.15047942182287324,
                0.030729368863762898,
                0.1127963922601995,
                0
            ],
            [
                0.07076707430358864,
                0.24278094293960703,
                -0.06724298996037574,
                0.001454197385759845
            ],
            [
                0.07663931868207444,
                -0.2381889225808163,
                0.0331017801858595,
                0.07196559012445844
            ],
            [
                -0.14441752573193534,
                -0.03686314903704835,
                0.06172522771556421,
                0.20772705448781859
            ],
            [
                0.06766850418132975,
                0,
                -0.05525839737496152,
                -0.046382452586573905
            ],
            [
                -0.008198866127672517,
                0.018814837361591813,
                0.16124678807688408,
                -0.0294475554132915
            ],
            [
                0.1955698028821101,
                -0.03799262453000589,
                0,
                0
            ],
            [
                -0.03862223193213457,
                0,
                -0.019864076678996645,
                -0.0897310800282222
            ],
            [
                -0.017912900134389634,
                0,
                0,
                -0.10986621264115999
            ],
            [
                0.05802780600765569,
                -0.031643441892869266,
                0,
                -0.04683621505693007
            ],
            [
                0.10721642910118104,
                0.008758294833618792,
                0.09438393338319587,
                -0.030892605464647067
            ],
            [
                -0.289421278124816,
                0.07074607750870082,
                0.05681021212883163,
                -0.05501487563576524
            ],
            [
                0,
                -0.062065431774348284,
                0.04727322063151385,
                -0.011358943130734066
            ],
            [
                -0.04511209601966866,
                0.01292364038410643,
                -0.04480127856894303,
                0.0010717297649809818
            ],
            [
                0.06266301410472179,
                0.20195295694556809,
                0,
                -0.06268822207415975
            ],
            [
                0.025481586509911565,
                -0.1433523265606124,
                0,
                -0.014925264678223728
            ],
            [
                0.20572397080788332,
                -0.14989703448364497,
                -0.008791596227643052,
                -0.004278552034571212
            ],
            [
                -0.012747355980807576,
                -0.036660599057703164,
                -0.1355805658686322,
                -0.054522050383305196
            ],
            [
                0.11038005048183935,
                -0.01875467116470604,
                0,
                0
            ]
        ]
    ],
    "bias": [
        [
            0.03655302037068196,
            -0.08773163846116329,
            0.040619802177960795,
            0.06868788060728495,
            0,
            0.01587237456213999,
            0,
            0.11456542532723057,
            -0.046028501462986336,
            0.13769414956603437,
            0.12004543457455483,
            -0.0859199019547304,
            0,
            0.02999872814784965,
            -0.20590559377919337,
            -0.026338353634828213,
            0.03665696194164317,
            0,
            0,
            -0.004456785927655901
        ],
        [
            -0.04823796072957667,
            0,
            0.04118581452036078,
            0.08447337795673021
        ]
    ]
}